digraph Tree {
node [shape=box, fontname="helvetica"] ;
edge [fontname="helvetica"] ;
0 [label="texture_worst <= 24.55\ngini = 0.5\nsamples = 511\nvalue = [253, 258]"] ;
1 [label="area_worst <= 968.7\ngini = 0.308\nsamples = 184\nvalue = [149, 35]"] ;
0 -> 1 [labeldistance=2.5, labelangle=45, headlabel="True"] ;
2 [label="compactness_worst <= 0.408\ngini = 0.097\nsamples = 157\nvalue = [149, 8]"] ;
1 -> 2 ;
3 [label="area_se <= 35.29\ngini = 0.052\nsamples = 150\nvalue = [146, 4]"] ;
2 -> 3 ;
4 [label="gini = 0.0\nsamples = 138\nvalue = [138, 0]"] ;
3 -> 4 ;
5 [label="texture_worst <= 20.53\ngini = 0.444\nsamples = 12\nvalue = [8, 4]"] ;
3 -> 5 ;
6 [label="gini = 0.0\nsamples = 5\nvalue = [5, 0]"] ;
5 -> 6 ;
7 [label="gini = 0.49\nsamples = 7\nvalue = [3, 4]"] ;
5 -> 7 ;
8 [label="concave points_worst <= 0.172\ngini = 0.49\nsamples = 7\nvalue = [3, 4]"] ;
2 -> 8 ;
9 [label="gini = 0.0\nsamples = 3\nvalue = [3, 0]"] ;
8 -> 9 ;
10 [label="gini = 0.0\nsamples = 4\nvalue = [0, 4]"] ;
8 -> 10 ;
11 [label="gini = 0.0\nsamples = 27\nvalue = [0, 27]"] ;
1 -> 11 ;
12 [label="area_worst <= 736.95\ngini = 0.434\nsamples = 327\nvalue = [104, 223]"] ;
0 -> 12 [labeldistance=2.5, labelangle=-45, headlabel="False"] ;
13 [label="concave points_worst <= 0.177\ngini = 0.115\nsamples = 98\nvalue = [92, 6]"] ;
12 -> 13 ;
14 [label="concave points_worst <= 0.136\ngini = 0.061\nsamples = 95\nvalue = [92, 3]"] ;
13 -> 14 ;
15 [label="texture_worst <= 33.35\ngini = 0.022\nsamples = 88\nvalue = [87, 1]"] ;
14 -> 15 ;
16 [label="gini = 0.0\nsamples = 78\nvalue = [78, 0]"] ;
15 -> 16 ;
17 [label="gini = 0.18\nsamples = 10\nvalue = [9, 1]"] ;
15 -> 17 ;
18 [label="concavity_worst <= 0.384\ngini = 0.408\nsamples = 7\nvalue = [5, 2]"] ;
14 -> 18 ;
19 [label="gini = 0.0\nsamples = 4\nvalue = [4, 0]"] ;
18 -> 19 ;
20 [label="gini = 0.444\nsamples = 3\nvalue = [1, 2]"] ;
18 -> 20 ;
21 [label="gini = 0.0\nsamples = 3\nvalue = [0, 3]"] ;
13 -> 21 ;
22 [label="compactness_worst <= 0.144\ngini = 0.099\nsamples = 229\nvalue = [12, 217]"] ;
12 -> 22 ;
23 [label="texture_worst <= 34.6\ngini = 0.32\nsamples = 5\nvalue = [4, 1]"] ;
22 -> 23 ;
24 [label="gini = 0.0\nsamples = 4\nvalue = [4, 0]"] ;
23 -> 24 ;
25 [label="gini = 0.0\nsamples = 1\nvalue = [0, 1]"] ;
23 -> 25 ;
26 [label="concave points_worst <= 0.085\ngini = 0.069\nsamples = 224\nvalue = [8, 216]"] ;
22 -> 26 ;
27 [label="gini = 0.0\nsamples = 4\nvalue = [4, 0]"] ;
26 -> 27 ;
28 [label="concavity_worst <= 0.187\ngini = 0.036\nsamples = 220\nvalue = [4, 216]"] ;
26 -> 28 ;
29 [label="gini = 0.5\nsamples = 2\nvalue = [1, 1]"] ;
28 -> 29 ;
30 [label="gini = 0.027\nsamples = 218\nvalue = [3, 215]"] ;
28 -> 30 ;
}