digraph Tree {
node [shape=box, fontname="helvetica"] ;
edge [fontname="helvetica"] ;
0 [label="radius_worst <= 16.795\nentropy = 1.0\nsamples = 511\nvalue = [253, 258]"] ;
1 [label="concave points_worst <= 0.111\nentropy = 0.541\nsamples = 282\nvalue = [247, 35]"] ;
0 -> 1 [labeldistance=2.5, labelangle=45, headlabel="True"] ;
2 [label="texture_se <= 2.097\nentropy = 0.106\nsamples = 215\nvalue = [212, 3]"] ;
1 -> 2 ;
3 [label="concavity_worst <= 0.215\nentropy = 0.045\nsamples = 203\nvalue = [202, 1]"] ;
2 -> 3 ;
4 [label="entropy = 0.0\nsamples = 164\nvalue = [164, 0]"] ;
3 -> 4 ;
5 [label="radius_worst <= 14.455\nentropy = 0.172\nsamples = 39\nvalue = [38, 1]"] ;
3 -> 5 ;
6 [label="entropy = 0.0\nsamples = 30\nvalue = [30, 0]"] ;
5 -> 6 ;
7 [label="entropy = 0.503\nsamples = 9\nvalue = [8, 1]"] ;
5 -> 7 ;
8 [label="area_se <= 48.975\nentropy = 0.65\nsamples = 12\nvalue = [10, 2]"] ;
2 -> 8 ;
9 [label="entropy = 0.0\nsamples = 10\nvalue = [10, 0]"] ;
8 -> 9 ;
10 [label="entropy = 0.0\nsamples = 2\nvalue = [0, 2]"] ;
8 -> 10 ;
11 [label="texture_worst <= 27.43\nentropy = 0.999\nsamples = 67\nvalue = [35, 32]"] ;
1 -> 11 ;
12 [label="area_worst <= 736.95\nentropy = 0.696\nsamples = 32\nvalue = [26, 6]"] ;
11 -> 12 ;
13 [label="entropy = 0.0\nsamples = 21\nvalue = [21, 0]"] ;
12 -> 13 ;
14 [label="concavity_worst <= 0.42\nentropy = 0.994\nsamples = 11\nvalue = [5, 6]"] ;
12 -> 14 ;
15 [label="entropy = 0.863\nsamples = 7\nvalue = [5, 2]"] ;
14 -> 15 ;
16 [label="entropy = 0.0\nsamples = 4\nvalue = [0, 4]"] ;
14 -> 16 ;
17 [label="concave points_worst <= 0.133\nentropy = 0.822\nsamples = 35\nvalue = [9, 26]"] ;
11 -> 17 ;
18 [label="area_worst <= 743.35\nentropy = 0.971\nsamples = 15\nvalue = [9, 6]"] ;
17 -> 18 ;
19 [label="entropy = 0.0\nsamples = 7\nvalue = [7, 0]"] ;
18 -> 19 ;
20 [label="entropy = 0.811\nsamples = 8\nvalue = [2, 6]"] ;
18 -> 20 ;
21 [label="entropy = 0.0\nsamples = 20\nvalue = [0, 20]"] ;
17 -> 21 ;
22 [label="radius_worst <= 18.275\nentropy = 0.175\nsamples = 229\nvalue = [6, 223]"] ;
0 -> 22 [labeldistance=2.5, labelangle=-45, headlabel="False"] ;
23 [label="symmetry_worst <= 0.259\nentropy = 0.639\nsamples = 37\nvalue = [6, 31]"] ;
22 -> 23 ;
24 [label="entropy = 0.0\nsamples = 3\nvalue = [3, 0]"] ;
23 -> 24 ;
25 [label="concavity_worst <= 0.232\nentropy = 0.431\nsamples = 34\nvalue = [3, 31]"] ;
23 -> 25 ;
26 [label="texture_se <= 0.818\nentropy = 1.0\nsamples = 6\nvalue = [3, 3]"] ;
25 -> 26 ;
27 [label="entropy = 0.0\nsamples = 3\nvalue = [3, 0]"] ;
26 -> 27 ;
28 [label="entropy = 0.0\nsamples = 3\nvalue = [0, 3]"] ;
26 -> 28 ;
29 [label="entropy = 0.0\nsamples = 28\nvalue = [0, 28]"] ;
25 -> 29 ;
30 [label="entropy = 0.0\nsamples = 192\nvalue = [0, 192]"] ;
22 -> 30 ;
}