digraph Tree {
node [shape=box, fontname="helvetica"] ;
edge [fontname="helvetica"] ;
0 [label="radius_worst <= 16.795\ngini = 0.5\nsamples = 511\nvalue = [260, 251]"] ;
1 [label="concave points_worst <= 0.136\ngini = 0.236\nsamples = 293\nvalue = [253, 40]"] ;
0 -> 1 [labeldistance=2.5, labelangle=45, headlabel="True"] ;
2 [label="radius_se <= 0.643\ngini = 0.055\nsamples = 247\nvalue = [240, 7]"] ;
1 -> 2 ;
3 [label="radius_worst <= 15.89\ngini = 0.04\nsamples = 245\nvalue = [240, 5]"] ;
2 -> 3 ;
4 [label="gini = 0.009\nsamples = 220\nvalue = [219, 1]"] ;
3 -> 4 ;
5 [label="gini = 0.269\nsamples = 25\nvalue = [21, 4]"] ;
3 -> 5 ;
6 [label="gini = 0.0\nsamples = 2\nvalue = [0, 2]"] ;
2 -> 6 ;
7 [label="smoothness_worst <= 0.14\ngini = 0.405\nsamples = 46\nvalue = [13, 33]"] ;
1 -> 7 ;
8 [label="texture_worst <= 27.325\ngini = 0.444\nsamples = 15\nvalue = [10, 5]"] ;
7 -> 8 ;
9 [label="gini = 0.165\nsamples = 11\nvalue = [10, 1]"] ;
8 -> 9 ;
10 [label="gini = 0.0\nsamples = 4\nvalue = [0, 4]"] ;
8 -> 10 ;
11 [label="radius_worst <= 14.915\ngini = 0.175\nsamples = 31\nvalue = [3, 28]"] ;
7 -> 11 ;
12 [label="gini = 0.444\nsamples = 3\nvalue = [2, 1]"] ;
11 -> 12 ;
13 [label="gini = 0.069\nsamples = 28\nvalue = [1, 27]"] ;
11 -> 13 ;
14 [label="perimeter_se <= 1.973\ngini = 0.062\nsamples = 218\nvalue = [7, 211]"] ;
0 -> 14 [labeldistance=2.5, labelangle=-45, headlabel="False"] ;
15 [label="texture_worst <= 20.8\ngini = 0.457\nsamples = 17\nvalue = [6, 11]"] ;
14 -> 15 ;
16 [label="gini = 0.0\nsamples = 6\nvalue = [6, 0]"] ;
15 -> 16 ;
17 [label="gini = 0.0\nsamples = 11\nvalue = [0, 11]"] ;
15 -> 17 ;
18 [label="perimeter_se <= 2.353\ngini = 0.01\nsamples = 201\nvalue = [1, 200]"] ;
14 -> 18 ;
19 [label="texture_se <= 1.211\ngini = 0.18\nsamples = 10\nvalue = [1, 9]"] ;
18 -> 19 ;
20 [label="gini = 0.0\nsamples = 9\nvalue = [0, 9]"] ;
19 -> 20 ;
21 [label="gini = 0.0\nsamples = 1\nvalue = [1, 0]"] ;
19 -> 21 ;
22 [label="gini = 0.0\nsamples = 191\nvalue = [0, 191]"] ;
18 -> 22 ;
}