digraph Tree {
node [shape=box, fontname="helvetica"] ;
edge [fontname="helvetica"] ;
0 [label="radius_worst <= 16.805\nentropy = 1.0\nsamples = 471\nvalue = [240, 231]"] ;
1 [label="concavity_mean <= 0.097\nentropy = 0.544\nsamples = 264\nvalue = [231, 33]"] ;
0 -> 1 [labeldistance=2.5, labelangle=45, headlabel="True"] ;
2 [label="texture_worst <= 29.575\nentropy = 0.274\nsamples = 233\nvalue = [222, 11]"] ;
1 -> 2 ;
3 [label="radius_worst <= 16.515\nentropy = 0.143\nsamples = 198\nvalue = [194, 4]"] ;
2 -> 3 ;
4 [label="concavity_worst <= 0.062\nentropy = 0.083\nsamples = 193\nvalue = [191, 2]"] ;
3 -> 4 ;
5 [label="entropy = 0.262\nsamples = 45\nvalue = [43, 2]"] ;
4 -> 5 ;
6 [label="entropy = 0.0\nsamples = 148\nvalue = [148, 0]"] ;
4 -> 6 ;
7 [label="concave points_worst <= 0.124\nentropy = 0.971\nsamples = 5\nvalue = [3, 2]"] ;
3 -> 7 ;
8 [label="entropy = 0.0\nsamples = 3\nvalue = [3, 0]"] ;
7 -> 8 ;
9 [label="entropy = 0.0\nsamples = 2\nvalue = [0, 2]"] ;
7 -> 9 ;
10 [label="concavity_mean <= 0.077\nentropy = 0.722\nsamples = 35\nvalue = [28, 7]"] ;
2 -> 10 ;
11 [label="smoothness_se <= 0.003\nentropy = 0.544\nsamples = 32\nvalue = [28, 4]"] ;
10 -> 11 ;
12 [label="entropy = 0.0\nsamples = 2\nvalue = [0, 2]"] ;
11 -> 12 ;
13 [label="entropy = 0.353\nsamples = 30\nvalue = [28, 2]"] ;
11 -> 13 ;
14 [label="entropy = 0.0\nsamples = 3\nvalue = [0, 3]"] ;
10 -> 14 ;
15 [label="texture_mean <= 16.66\nentropy = 0.869\nsamples = 31\nvalue = [9, 22]"] ;
1 -> 15 ;
16 [label="entropy = 0.0\nsamples = 4\nvalue = [4, 0]"] ;
15 -> 16 ;
17 [label="concavity_worst <= 0.262\nentropy = 0.691\nsamples = 27\nvalue = [5, 22]"] ;
15 -> 17 ;
18 [label="entropy = 0.0\nsamples = 2\nvalue = [2, 0]"] ;
17 -> 18 ;
19 [label="concave points_worst <= 0.122\nentropy = 0.529\nsamples = 25\nvalue = [3, 22]"] ;
17 -> 19 ;
20 [label="entropy = 0.0\nsamples = 3\nvalue = [3, 0]"] ;
19 -> 20 ;
21 [label="entropy = 0.0\nsamples = 22\nvalue = [0, 22]"] ;
19 -> 21 ;
22 [label="concavity_worst <= 0.231\nentropy = 0.258\nsamples = 207\nvalue = [9, 198]"] ;
0 -> 22 [labeldistance=2.5, labelangle=-45, headlabel="False"] ;
23 [label="texture_mean <= 19.72\nentropy = 0.949\nsamples = 19\nvalue = [7, 12]"] ;
22 -> 23 ;
24 [label="concavity_mean <= 0.043\nentropy = 0.544\nsamples = 8\nvalue = [7, 1]"] ;
23 -> 24 ;
25 [label="entropy = 0.0\nsamples = 1\nvalue = [0, 1]"] ;
24 -> 25 ;
26 [label="entropy = 0.0\nsamples = 7\nvalue = [7, 0]"] ;
24 -> 26 ;
27 [label="entropy = 0.0\nsamples = 11\nvalue = [0, 11]"] ;
23 -> 27 ;
28 [label="texture_worst <= 18.87\nentropy = 0.085\nsamples = 188\nvalue = [2, 186]"] ;
22 -> 28 ;
29 [label="radius_worst <= 17.985\nentropy = 0.863\nsamples = 7\nvalue = [2, 5]"] ;
28 -> 29 ;
30 [label="entropy = 0.0\nsamples = 2\nvalue = [2, 0]"] ;
29 -> 30 ;
31 [label="entropy = 0.0\nsamples = 5\nvalue = [0, 5]"] ;
29 -> 31 ;
32 [label="entropy = 0.0\nsamples = 181\nvalue = [0, 181]"] ;
28 -> 32 ;
}