digraph Tree {
node [shape=box, fontname="helvetica"] ;
edge [fontname="helvetica"] ;
0 [label="concavity_worst <= 0.208\ngini = 0.499\nsamples = 535\nvalue = [277, 258]"] ;
1 [label="area_se <= 45.17\ngini = 0.055\nsamples = 213\nvalue = [207, 6]"] ;
0 -> 1 [labeldistance=2.5, labelangle=45, headlabel="True"] ;
2 [label="area_worst <= 1039.1\ngini = 0.01\nsamples = 204\nvalue = [203, 1]"] ;
1 -> 2 ;
3 [label="gini = 0.0\nsamples = 203\nvalue = [203, 0]"] ;
2 -> 3 ;
4 [label="gini = 0.0\nsamples = 1\nvalue = [0, 1]"] ;
2 -> 4 ;
5 [label="smoothness_worst <= 0.122\ngini = 0.494\nsamples = 9\nvalue = [4, 5]"] ;
1 -> 5 ;
6 [label="concave points_worst <= 0.078\ngini = 0.408\nsamples = 7\nvalue = [2, 5]"] ;
5 -> 6 ;
7 [label="smoothness_worst <= 0.104\ngini = 0.278\nsamples = 6\nvalue = [1, 5]"] ;
6 -> 7 ;
8 [label="gini = 0.444\nsamples = 3\nvalue = [1, 2]"] ;
7 -> 8 ;
9 [label="gini = 0.0\nsamples = 3\nvalue = [0, 3]"] ;
7 -> 9 ;
10 [label="gini = 0.0\nsamples = 1\nvalue = [1, 0]"] ;
6 -> 10 ;
11 [label="gini = 0.0\nsamples = 2\nvalue = [2, 0]"] ;
5 -> 11 ;
12 [label="radius_worst <= 15.005\ngini = 0.34\nsamples = 322\nvalue = [70, 252]"] ;
0 -> 12 [labeldistance=2.5, labelangle=-45, headlabel="False"] ;
13 [label="compactness_worst <= 0.157\ngini = 0.215\nsamples = 57\nvalue = [50, 7]"] ;
12 -> 13 ;
14 [label="concave points_worst <= 0.072\ngini = 0.375\nsamples = 4\nvalue = [1, 3]"] ;
13 -> 14 ;
15 [label="gini = 0.0\nsamples = 1\nvalue = [1, 0]"] ;
14 -> 15 ;
16 [label="gini = 0.0\nsamples = 3\nvalue = [0, 3]"] ;
14 -> 16 ;
17 [label="concave points_mean <= 0.062\ngini = 0.14\nsamples = 53\nvalue = [49, 4]"] ;
13 -> 17 ;
18 [label="gini = 0.0\nsamples = 47\nvalue = [47, 0]"] ;
17 -> 18 ;
19 [label="texture_worst <= 22.935\ngini = 0.444\nsamples = 6\nvalue = [2, 4]"] ;
17 -> 19 ;
20 [label="gini = 0.0\nsamples = 2\nvalue = [2, 0]"] ;
19 -> 20 ;
21 [label="gini = 0.0\nsamples = 4\nvalue = [0, 4]"] ;
19 -> 21 ;
22 [label="concave points_mean <= 0.045\ngini = 0.14\nsamples = 265\nvalue = [20, 245]"] ;
12 -> 22 ;
23 [label="radius_worst <= 16.825\ngini = 0.5\nsamples = 26\nvalue = [13, 13]"] ;
22 -> 23 ;
24 [label="perimeter_se <= 1.783\ngini = 0.278\nsamples = 12\nvalue = [10, 2]"] ;
23 -> 24 ;
25 [label="gini = 0.444\nsamples = 3\nvalue = [1, 2]"] ;
24 -> 25 ;
26 [label="gini = 0.0\nsamples = 9\nvalue = [9, 0]"] ;
24 -> 26 ;
27 [label="concavity_worst <= 0.239\ngini = 0.337\nsamples = 14\nvalue = [3, 11]"] ;
23 -> 27 ;
28 [label="gini = 0.444\nsamples = 3\nvalue = [2, 1]"] ;
27 -> 28 ;
29 [label="gini = 0.165\nsamples = 11\nvalue = [1, 10]"] ;
27 -> 29 ;
30 [label="area_worst <= 861.8\ngini = 0.057\nsamples = 239\nvalue = [7, 232]"] ;
22 -> 30 ;
31 [label="compactness_worst <= 0.421\ngini = 0.283\nsamples = 41\nvalue = [7, 34]"] ;
30 -> 31 ;
32 [label="gini = 0.434\nsamples = 22\nvalue = [7, 15]"] ;
31 -> 32 ;
33 [label="gini = 0.0\nsamples = 19\nvalue = [0, 19]"] ;
31 -> 33 ;
34 [label="gini = 0.0\nsamples = 198\nvalue = [0, 198]"] ;
30 -> 34 ;
}